net
{
    node_size = (80 40);
    HR_realname_t1 = "t1";
    HR_realname_t3 = "t3";
    HR_realname_t5 = "t5";
    HR_realname_t2 = "t2";
    HR_realname_t4 = "t4";
    HR_realname_t6 = "t6";
    HR_realname_T = "T";
    HR_realname_T1 = "T1";
    HR_realname_T3 = "T3";
    HR_realname_T5 = "T5";
    HR_realname_T2 = "T2";
    HR_realname_T4 = "T4";
    HR_realname_C8 = "C8";
    HR_realname_T6 = "T6";
    HR_realname_departure_gate = "departure_gate";
    HR_realname_pushback_time = "pushback_time";
    HR_realname_spot_arrival_time = "spot_arrival_time";
    HR_realname_opposite_traffic = "opposite_traffic";
    HR_realname_adjacent_spot = "adjacent_spot";
    HR_realname_runaway_queue = "runaway_queue";
    HR_realname_runaway_arrival = "runaway_arrival";
    HR_realname_adjacent_pushback_time = "adjacent_pushback_time";
    HR_realname_pre_pushback_state_1 = "pre_pushback_state_1";
    HR_DBN_Num_Slices = "5";
    HR_Desc = "";
    HR_OOBN_CheckConsistency = "1";
    HR_OOBN_FitExpand = "1";
    HR_Zoom_ZoomFactor = "100";
    HR_Groups_GroupColors = "";
    HR_Groups_GroupNames = "";
    HR_Groups_UserGroupsNo = "0";
    HR_Utility_Link = "63";
    HR_Probabilistic_Link = "63";
    HR_Functional_Link = "63";
    HR_Binding_Link = "63";
    HR_Information_Arc = "63";
    HR_Color_Interface = "21";
    HR_Color_Instance = "0";
    HR_Color_DiscreteFunction = "5";
    HR_Color_Function = "4";
    HR_Color_Utility = "36";
    HR_Color_Decision = "17";
    HR_Color_ContinuousChance = "48";
    HR_Color_DiscreteChance = "16";
    HR_Monitor_InitSD = "2";
    HR_Monitor_Utility_Arrange = "0";
    HR_Monitor_Mean_Variance = "1";
    HR_Monitor_Chance_Utility = "1";
    HR_Monitor_InitStates = "5";
    HR_Monitor_OpenGraph = "0";
    HR_Monitor_GraphPrecision = "100";
    HR_Monitor_AutoUpdGraph = "0";
    HR_Compile_MaxMinimalSeparators = "100000";
    HR_Compile_ApproxEpsilon = "1.0E-5";
    HR_Compile_Approximate = "0";
    HR_Compile_SaveToMemory = "0";
    HR_Compile_Compress = "0";
    HR_Compile_TriangMethod = "0";
    HR_Propagate_AutoNormal = "1";
    HR_Propagate_AutoSum = "1";
    HR_Propagate_Auto = "1";
    HR_Font_Italic = "0";
    HR_Font_Weight = "400";
    HR_Font_Size = "-12";
    HR_Font_Name = "javax.swing.plaf.FontUIResource[family=Tahoma,name=Tahoma,style=plain,size=13]";
    HR_Grid_GridShow = "0";
    HR_Grid_GridSnap = "0";
    HR_Grid_Y = "40";
    HR_Grid_X = "40";
}

node T
{
    label = "Pre-pushback Process completion state";
    position = (601 284);
    states = ("" "" "" "" "");
    subtype = interval;
    state_values = (-30 0 10 20 30 infinity);
    HR_State_0 = "";
    HR_State_1 = "";
    HR_Desc = "";
    HR_State_2 = "";
    HR_State_3 = "";
    HR_State_4 = "";
    HR_State_5 = "";
    HR_LinkMode = "";
    HR_LinkGroup = "";
    HR_LinkControlPoints = "";
    HR_State_6 = "";
    HR_State_7 = "";
    HR_NodeSize = "(165, 68)";
    HR_Group = "0";
}

node t6
{
    label = "Boarding process";
    position = (200 40);
    states = ("" "" "" "" "");
    subtype = interval;
    state_values = (-infinity 0 10 20 30 infinity);
    HR_State_0 = "";
    HR_State_1 = "";
    HR_Desc = "";
    HR_State_2 = "";
    HR_State_3 = "";
    HR_State_4 = "";
    HR_State_5 = "";
    HR_LinkMode = "[T:0]";
    HR_LinkGroup = "[T:0]";
    HR_LinkControlPoints = "";
    HR_State_6 = "";
    HR_State_7 = "";
    HR_NodeSize = "(165, 68)";
    HR_Group = "0";
}

node t4
{
    label = "Fueling process";
    position = (200 240);
    states = ("" "" "" "" "");
    subtype = interval;
    state_values = (-infinity 0 10 20 30 infinity);
    HR_NodeSize = "(165, 68)";
    HR_State_7 = "";
    HR_State_6 = "";
    HR_LinkControlPoints = "";
    HR_LinkGroup = "[T:0]";
    HR_LinkMode = "[T:0]";
    HR_State_5 = "";
    HR_State_4 = "";
    HR_State_3 = "";
    HR_State_2 = "";
    HR_Desc = "";
    HR_State_1 = "";
    HR_State_0 = "";
    HR_Group = "0";
}

node t2
{
    label = "De-boarding process";
    position = (200 440);
    states = ("" "" "" "" "");
    subtype = interval;
    state_values = (-infinity 0 10 20 30 infinity);
    HR_State_0 = "";
    HR_State_1 = "";
    HR_Desc = "";
    HR_State_2 = "";
    HR_State_3 = "";
    HR_State_4 = "";
    HR_State_5 = "";
    HR_LinkMode = "[T:0]";
    HR_LinkGroup = "[T:0]";
    HR_LinkControlPoints = "";
    HR_State_6 = "";
    HR_State_7 = "";
    HR_NodeSize = "(165, 68)";
    HR_Group = "0";
}

node t5
{
    label = "Pre boarding activities";
    position = (200 140);
    states = ("" "" "" "" "");
    subtype = interval;
    state_values = (-infinity 0 10 20 30 infinity);
    HR_NodeSize = "(165, 68)";
    HR_State_7 = "";
    HR_State_6 = "";
    HR_LinkControlPoints = "";
    HR_LinkGroup = "[T:0]";
    HR_LinkMode = "[T:0]";
    HR_State_5 = "";
    HR_State_4 = "";
    HR_State_3 = "";
    HR_State_2 = "";
    HR_Desc = "";
    HR_State_1 = "";
    HR_State_0 = "";
    HR_Group = "0";
}

node t3
{
    label = "Pre fuelling activities";
    position = (200 340);
    states = ("" "" "" "" "");
    subtype = interval;
    state_values = (-infinity 0 10 20 30 infinity);
    HR_State_0 = "";
    HR_State_1 = "";
    HR_Desc = "";
    HR_State_2 = "";
    HR_State_3 = "";
    HR_State_4 = "";
    HR_State_5 = "";
    HR_LinkMode = "[T:0]";
    HR_LinkGroup = "[T:0]";
    HR_LinkControlPoints = "";
    HR_State_6 = "";
    HR_State_7 = "";
    HR_NodeSize = "(165, 68)";
    HR_Group = "0";
}

node t1
{
    label = "Pre de-boarding Activities";
    position = (200 540);
    states = ("" "" "" "" "");
    subtype = interval;
    state_values = (-infinity 0 40 80 120 infinity);
    HR_NodeSize = "(165, 68)";
    HR_State_7 = "";
    HR_State_6 = "";
    HR_LinkControlPoints = "";
    HR_LinkGroup = "[T:0]";
    HR_LinkMode = "[T:0]";
    HR_State_5 = "";
    HR_State_4 = "";
    HR_State_3 = "";
    HR_State_2 = "";
    HR_Group = "0";
    HR_Desc = "";
    HR_State_1 = "";
    HR_State_0 = "";
}

potential (T | t6 t5 t4 t3 t2 t1)
{
    model_nodes = ();
    model_data = ( t1 + t2 + t3 + t4 + t5 + t6 );
}

potential (t6)
{
    model_nodes = ();
    model_data = ( Weibull (20, 10) );
}

potential (t4)
{
    model_nodes = ();
    model_data = ( Weibull (20, 10) );
}

potential (t2)
{
    model_nodes = ();
    model_data = ( Weibull (20, 10) );
    data = ( 0 0.632121 0.367879 0 0 );
}

potential (t5)
{
    model_nodes = ();
    model_data = ( Normal (15, 5) );
    data = ( 9.85172E-012 0.0126737 0.974653 0.0126737 9.85172E-012 );
}

potential (t3)
{
    model_nodes = ();
    model_data = ( Normal (15, 5) );
    data = ( 9.85172E-012 0.0126737 0.974653 0.0126737 9.85172E-012 );
}

potential (t1)
{
    model_nodes = ();
    model_data = ( Normal (60, 20) );
    data = ( 2.42321E-041 3.87211E-006 0.999992 3.87211E-006 2.42321E-041 );
}
